{
    "type": "LSTM",
    "options": {
        "inputSize": 46,
        "inputRange": 46,
        "hiddenLayers": [
            4
        ],
        "outputSize": 46,
        "decayRate": 0.999,
        "smoothEps": 1e-8,
        "regc": 0.000001,
        "clipval": 5,
        "maxPredictionLength": 100,
        "dataFormatter": {
            "indexTable": {
                "1": 39,
                "2": 31,
                "3": 25,
                "4": 41,
                "5": 23,
                "s": 0,
                "o": 1,
                "l": 2,
                "v": 3,
                "e": 4,
                " ": 5,
                "t": 6,
                "h": 7,
                "q": 8,
                "u": 9,
                "a": 10,
                "i": 11,
                "n": 12,
                "b": 13,
                "m": 14,
                "c": 15,
                "r": 16,
                "g": 17,
                "p": 18,
                "W": 19,
                "f": 20,
                "w": 21,
                "d": 22,
                "?": 24,
                "S": 26,
                "y": 27,
                "x": 28,
                "(": 29,
                "+": 30,
                ")": 32,
                "-": 33,
                "F": 34,
                "=": 35,
                "^": 36,
                ":": 37,
                ",": 38,
                "I": 40,
                "P": 42,
                "stop-input": 43,
                "start-output": 44,
                "unrecognized": 45
            },
            "characterTable": {
                "0": "s",
                "1": "o",
                "2": "l",
                "3": "v",
                "4": "e",
                "5": " ",
                "6": "t",
                "7": "h",
                "8": "q",
                "9": "u",
                "10": "a",
                "11": "i",
                "12": "n",
                "13": "b",
                "14": "m",
                "15": "c",
                "16": "r",
                "17": "g",
                "18": "p",
                "19": "W",
                "20": "f",
                "21": "w",
                "22": "d",
                "23": "5",
                "24": "?",
                "25": "3",
                "26": "S",
                "27": "y",
                "28": "x",
                "29": "(",
                "30": "+",
                "31": "2",
                "32": ")",
                "33": "-",
                "34": "F",
                "35": "=",
                "36": "^",
                "37": ":",
                "38": ",",
                "39": "1",
                "40": "I",
                "41": "4",
                "42": "P",
                "43": null,
                "44": null,
                "45": null
            },
            "values": [
                {
                    "input": "solve the equation above",
                    "output": "math"
                },
                {
                    "input": "calculate the triangle perimeter",
                    "output": "math"
                },
                {
                    "input": "What is the area of a circle with radius 5?",
                    "output": "math"
                },
                {
                    "input": "What is the volume of a sphere with radius 3?",
                    "output": "math"
                },
                {
                    "input": "Simplify the expression (x + 2)(x - 3)",
                    "output": "math"
                },
                {
                    "input": "Find the derivative of f(x) = x^2 + 3x",
                    "output": "math"
                },
                {
                    "input": "What is the integral of e^x dx?",
                    "output": "math"
                },
                {
                    "input": "Solve the system of equations: x + y = 5, 2x - y = 1",
                    "output": "math"
                },
                {
                    "input": "Is the triangle with sides 3, 4, and 5 right-angled?",
                    "output": "math"
                },
                {
                    "input": "What is the Pythagorean theorem?",
                    "output": "math"
                },
                {
                    "input": "grammer",
                    "output": "english"
                },
                {
                    "input": "read the story above and answer the next question",
                    "output": "english"
                },
                {
                    "input": "complete the sentences",
                    "output": "english"
                }
            ],
            "characters": [
                "s",
                "o",
                "l",
                "v",
                "e",
                " ",
                "t",
                "h",
                "q",
                "u",
                "a",
                "i",
                "n",
                "b",
                "m",
                "c",
                "r",
                "g",
                "p",
                "W",
                "f",
                "w",
                "d",
                "5",
                "?",
                "3",
                "S",
                "y",
                "x",
                "(",
                "+",
                "2",
                ")",
                "-",
                "F",
                "=",
                "^",
                ":",
                ",",
                "1",
                "I",
                "4",
                "P",
                "stop-input",
                "start-output",
                "unrecognized"
            ],
            "specialIndexes": [
                43,
                44,
                45
            ]
        }
    },
    "trainOpts": {
        "iterations": 5000,
        "errorThresh": 0.005,
        "log": false,
        "logPeriod": 10,
        "learningRate": 0.01,
        "callbackPeriod": 10,
        "timeout": "Infinity"
    },
    "input": {
        "rows": 47,
        "columns": 46,
        "weights": [
            -2.043104410171509,
            0.7678530812263489,
            1.421249270439148,
            -0.2859130799770355,
            0.4151087999343872,
            -0.6607017517089844,
            0.7629966735839844,
            -0.4498473107814789,
            0.7247741222381592,
            -0.8701887726783752,
            0.18490363657474518,
            0.5481354594230652,
            0.06289337575435638,
            -0.4366762936115265,
            -1.2575478553771973,
            1.5130338668823242,
            0.6115737557411194,
            1.4830596446990967,
            1.2869354486465454,
            0.2606106102466583,
            1.4231457710266113,
            -0.646852433681488,
            1.955881953239441,
            -1.0575966835021973,
            0.04646347835659981,
            -0.3856622576713562,
            1.4339265823364258,
            -1.3279987573623657,
            -1.2692205905914307,
            2.8948774337768555,
            -1.761239767074585,
            0.06909436732530594,
            0.5578108429908752,
            0.35242944955825806,
            0.6041885018348694,
            -0.5651235580444336,
            0.42137056589126587,
            -1.6620007753372192,
            -2.2581746578216553,
            0.5958144664764404,
            0.18067240715026855,
            0.8033061623573303,
            -0.4285028576850891,
            -0.7393401861190796,
            0.03437585011124611,
            2.5237338542938232,
            -9.880178451538086,
            3.1117942333221436,
            6.799796104431152,
            -3.453106641769409,
            -7.06812047958374,
            2.049494981765747,
            3.836178779602051,
            6.423102855682373,
            -2.4043891429901123,
            6.104193687438965,
            -0.1156931221485138,
            4.118164539337158,
            1.6482138633728027,
            -2.7028214931488037,
            -1.7992630004882812,
            8.147359848022461,
            4.958929538726807,
            -0.8072071075439453,
            -2.9214861392974854,
            -0.949912428855896,
            1.8792191743850708,
            -0.31708982586860657,
            2.644989490509033,
            1.420326590538025,
            9.762382507324219,
            3.518322229385376,
            -2.899064779281616,
            2.836538791656494,
            4.925275802612305,
            0.7748960852622986,
            -0.6897166967391968,
            -2.505831003189087,
            11.747153282165527,
            0.7616825103759766,
            -2.5717880725860596,
            0.8577094674110413,
            10.278903007507324,
            7.299154281616211,
            -1.9782451391220093,
            3.6660172939300537,
            6.878664493560791,
            -2.039860963821411,
            5.027002334594727,
            1.0730581283569336,
            -1.1691731214523315,
            -2.034656047821045,
            8.197697639465332,
            18.569826126098633,
            12.091394424438477,
            11.808958053588867,
            -8.510298728942871,
            -9.246233940124512,
            2.9862899780273438,
            5.268301963806152,
            -9.75137710571289,
            -5.728604316711426,
            0.02219764143228531,
            1.1571859121322632,
            -3.2889115810394287,
            10.850180625915527,
            0.49088308215141296,
            -11.382210731506348,
            -6.970077037811279,
            12.52955436706543,
            11.519627571105957,
            -3.8468804359436035,
            -9.165387153625488,
            -4.58519983291626,
            -3.2773783206939697,
            0.042853258550167084,
            14.497801780700684,
            -14.6580171585083,
            9.680689811706543,
            -2.09173846244812,
            4.42388916015625,
            -17.054485321044922,
            -10.754693984985352,
            8.656786918640137,
            6.313302516937256,
            -5.688178062438965,
            -1.7802982330322266,
            -3.4089155197143555,
            13.858165740966797,
            -8.389925003051758,
            -10.898306846618652,
            3.921861171722412,
            1.7430781126022339,
            1.53573477268219,
            7.516030311584473,
            -9.090616226196289,
            -5.935401439666748,
            11.895221710205078,
            0.9307252764701843,
            2.546469211578369,
            -0.8495644330978394,
            -1.5191370248794556,
            3.7526261806488037,
            -1.8632291555404663,
            -0.28550025820732117,
            -1.69484281539917,
            -1.1818979978561401,
            -4.751166820526123,
            1.5509880781173706,
            2.788498640060425,
            -0.16024932265281677,
            -2.891580581665039,
            3.051100015640259,
            -0.5728883743286133,
            0.1759210079908371,
            5.608673095703125,
            0.7834169864654541,
            0.4794759154319763,
            0.06745193898677826,
            -1.8786747455596924,
            -2.6043684482574463,
            1.7307918071746826,
            0.6622101664543152,
            -0.48854002356529236,
            -1.5078136920928955,
            -0.5101845860481262,
            0.6472713351249695,
            0.9186915159225464,
            2.365894079208374,
            -2.836620807647705,
            -1.9628852605819702,
            -0.42550894618034363,
            -2.936757802963257,
            0.8425935506820679,
            3.8525304794311523,
            -1.273160696029663,
            -0.106326624751091,
            0.8539925217628479,
            -0.5002260208129883,
            -6.480768203735352,
            -0.2947257459163666,
            4.211545467376709,
            0.9932973384857178,
            -1.5341931581497192,
            -4.279449939727783,
            -4.584702968597412,
            2.8933613300323486,
            -5.073537826538086,
            -3.307755708694458,
            -3.9201860427856445,
            -4.841381072998047,
            -6.8159565925598145,
            2.21243953704834,
            -6.427292346954346,
            1.8783166408538818,
            1.5210472345352173,
            -0.24172860383987427,
            -6.226118564605713,
            -1.4632970094680786,
            -1.3661296367645264,
            -2.2849936485290527,
            -4.983488082885742,
            -5.13014030456543,
            0.5683346390724182,
            1.2178525924682617,
            -0.16822119057178497,
            4.407595157623291,
            0.0432506762444973,
            -2.6587531566619873,
            3.173792839050293,
            5.879887104034424,
            7.5685038566589355,
            2.981316328048706,
            3.3772599697113037,
            -0.4388566017150879,
            -2.476555585861206,
            -0.3171842098236084,
            4.3971266746521,
            5.335123538970947,
            -2.5622591972351074,
            0.24640172719955444,
            -4.443970203399658,
            -2.841095209121704,
            2.8462936878204346,
            -2.020390272140503,
            2.0452640056610107,
            -6.93487548828125,
            -3.0165369510650635,
            2.542882204055786,
            -0.20446395874023438,
            0.8914875388145447,
            -1.6335595846176147,
            0.40165063738822937,
            -1.160102128982544,
            3.0966172218322754,
            -0.23474039137363434,
            -3.8375325202941895,
            -4.811495304107666,
            0.0354292169213295,
            -3.0858142375946045,
            0.8755481839179993,
            -0.1735285520553589,
            0.6840758323669434,
            -3.7646751403808594,
            2.702476978302002,
            0.6765128970146179,
            -0.7632547616958618,
            0.1838642656803131,
            0.12458893656730652,
            -0.7840249538421631,
            1.0446120500564575,
            0.8262270092964172,
            2.5996246337890625,
            -0.44815221428871155,
            -0.22619540989398956,
            3.411405324935913,
            -1.6963815689086914,
            0.29649266600608826,
            -0.280638724565506,
            0.09883350878953934,
            3.0031371116638184,
            -5.38782262802124,
            1.3791595697402954,
            0.8714032173156738,
            -6.993000030517578,
            -2.2013282775878906,
            -0.2183077335357666,
            -0.29542088508605957,
            3.395612955093384,
            3.854339361190796,
            3.307593822479248,
            -1.964788556098938,
            -0.07986721396446228,
            0.6033949255943298,
            1.5347098112106323,
            -6.852552890777588,
            0.11827323585748672,
            -0.7586237192153931,
            -1.9117556810379028,
            0.7323821783065796,
            2.951202154159546,
            0.6006405353546143,
            0.2838461697101593,
            1.8757896423339844,
            0.8543526530265808,
            0.16008545458316803,
            0.877814769744873,
            3.3870599269866943,
            1.681772232055664,
            3.3792994022369385,
            -3.15293288230896,
            3.2340476512908936,
            2.0557610988616943,
            1.7691704034805298,
            0.8722636103630066,
            0.6221046447753906,
            0.5447781085968018,
            1.4927899837493896,
            -1.2680766582489014,
            -1.407617211341858,
            -0.8246919512748718,
            -0.3353736400604248,
            -1.4436616897583008,
            0.3142540454864502,
            -4.05532693862915,
            -0.469630628824234,
            -2.2170393466949463,
            1.611344814300537,
            1.8946436643600464,
            0.5311300754547119,
            2.0926294326782227,
            -0.9436413049697876,
            0.9725229740142822,
            0.20133087038993835,
            0.5601056218147278,
            -1.320668339729309,
            -0.7691732048988342,
            2.9734058380126953,
            -5.485733985900879,
            -4.863781929016113,
            0.9285741448402405,
            1.1219322681427002,
            -4.274442195892334,
            2.0746753215789795,
            -3.468487501144409,
            -4.804112434387207,
            -4.834823131561279,
            -0.9904024600982666,
            -0.348994642496109,
            -8.250147819519043,
            8.188289642333984,
            -2.1510908603668213,
            -1.2891006469726562,
            -2.217325210571289,
            1.156518578529358,
            -7.0160932540893555,
            7.738455772399902,
            -2.351780414581299,
            -2.1361684799194336,
            -5.658818244934082,
            -1.2650705575942993,
            -0.8762840032577515,
            2.8892056941986084,
            2.1935884952545166,
            -0.4059082567691803,
            0.008975842967629433,
            -4.4421539306640625,
            1.5384554862976074,
            3.5443875789642334,
            1.7821664810180664,
            2.291484832763672,
            1.240105390548706,
            -7.3194708824157715,
            2.7762584686279297,
            -7.328932285308838,
            1.6157801151275635,
            -0.5323985815048218,
            4.068896770477295,
            -0.8206449747085571,
            -16.855695724487305,
            -9.430445671081543,
            1.7848185300827026,
            14.46690845489502,
            -2.8035054206848145,
            -6.810234546661377,
            0.7030019164085388,
            3.822960138320923,
            4.580864906311035,
            2.195762872695923,
            -1.0644445419311523,
            2.0600030422210693,
            -1.2038384675979614,
            -2.8743557929992676,
            -1.280434489250183,
            -3.4067323207855225,
            -1.6714813709259033,
            -0.7984884977340698,
            -3.402170181274414,
            2.396303415298462,
            2.9386165142059326,
            3.713003396987915,
            -2.597607374191284,
            3.997938632965088,
            -3.0001111030578613,
            -0.08274651318788528,
            0.2880900502204895,
            -0.0018733933102339506,
            2.8236899375915527,
            -2.2592592239379883,
            -4.462251663208008,
            9.432055473327637,
            2.714778184890747,
            -2.7837469577789307,
            -3.2715742588043213,
            2.213340997695923,
            0.1551680564880371,
            -0.6839048862457275,
            -1.8182908296585083,
            -0.9803691506385803,
            0.6678236126899719,
            3.732365369796753,
            -1.52924644947052,
            -1.1005455255508423,
            4.790915012359619,
            -3.672856569290161,
            -1.254014253616333,
            2.885185480117798,
            1.2576398849487305,
            -0.595647394657135,
            4.198971271514893,
            -0.01221539918333292,
            -1.2555243968963623,
            3.0614452362060547,
            2.5989928245544434,
            -8.736061096191406,
            2.678882360458374,
            0.8076162934303284,
            -6.774580955505371,
            0.3161247670650482,
            -0.49679362773895264,
            0.17578718066215515,
            3.6000192165374756,
            3.721182107925415,
            0.48191574215888977,
            6.258080005645752,
            5.921981334686279,
            6.393631935119629,
            -9.3662748336792,
            3.702157735824585,
            6.46898889541626,
            -0.48037177324295044,
            4.9311370849609375,
            6.216263771057129,
            1.3217984437942505,
            -3.8275303840637207,
            1.4533333778381348,
            0.80321204662323,
            -5.369827747344971,
            -4.726016998291016,
            3.0847909450531006,
            3.672193765640259,
            -0.7075487375259399,
            0.2789110243320465,
            4.960144519805908,
            1.6112099885940552,
            -2.3798210620880127,
            0.9497420191764832,
            -2.672867774963379,
            1.2907922267913818,
            -2.4299657344818115,
            -4.556217193603516,
            0.9529789090156555,
            1.120846152305603,
            0.9965357184410095,
            4.211136341094971,
            1.5172511339187622,
            -2.490773916244507,
            -3.3458569049835205,
            5.490499973297119,
            2.655137300491333,
            0.07129660248756409,
            7.5930328369140625,
            -0.8728346824645996,
            1.0690491199493408,
            -6.029288291931152,
            -0.20728403329849243,
            -4.388146877288818,
            0.5739254355430603,
            1.837003469467163,
            -1.233119010925293,
            3.74676775932312,
            -4.942018032073975,
            2.5326895713806152,
            -0.38018500804901123,
            2.9186713695526123,
            -4.303176403045654,
            0.5934917330741882,
            3.045274019241333,
            -1.3384745121002197,
            0.02680155634880066,
            0.6513675451278687,
            -9.143887519836426,
            1.7912365198135376,
            4.769840717315674,
            2.2307722568511963,
            -2.419975519180298,
            -0.6331491470336914,
            0.853878378868103,
            -1.5747827291488647,
            3.1694533824920654,
            -1.569242000579834,
            2.3841896057128906,
            -0.2981441617012024,
            -0.4718486964702606,
            5.446878433227539,
            -4.930119037628174,
            2.0991568565368652,
            -1.454925775527954,
            -0.7591418027877808,
            -0.9097366333007812,
            0.8065661787986755,
            1.2524302005767822,
            -1.8464933633804321,
            -2.39705491065979,
            2.4027748107910156,
            5.867276191711426,
            0.895091712474823,
            -0.31829890608787537,
            2.5663130283355713,
            0.01562654599547386,
            -0.8858060836791992,
            -0.3238089978694916,
            -0.19485515356063843,
            0.5184494256973267,
            -2.3799548149108887,
            2.1387522220611572,
            0.28606826066970825,
            1.5746062994003296,
            0.033985041081905365,
            0.2580699622631073,
            -2.2687389850616455,
            -1.3311424255371094,
            -1.7588016986846924,
            1.8049793243408203,
            2.3889541625976562,
            3.4278416633605957,
            -0.5744699239730835,
            -1.6488348245620728,
            2.012864589691162,
            -0.521843671798706,
            2.571356773376465,
            -3.811508893966675,
            0.6684175729751587,
            0.5043068528175354,
            -0.39749109745025635,
            -4.4080891609191895,
            -1.6178840398788452,
            -2.911104679107666,
            3.042203903198242,
            -2.457444190979004,
            1.8244260549545288,
            4.6132330894470215,
            -5.722907543182373,
            -5.70621919631958,
            -2.5497896671295166,
            4.072895050048828,
            -0.837317943572998,
            0.12886743247509003,
            3.250681161880493,
            -0.8934849500656128,
            -0.3461665213108063,
            0.8599140644073486,
            2.1311562061309814,
            -0.8888152837753296,
            -13.87337875366211,
            0.7298548817634583,
            3.8880717754364014,
            -1.4377481937408447,
            0.4504827857017517,
            -0.7991387248039246,
            -2.964836359024048,
            -0.7602120637893677,
            1.181575894355774,
            1.1289278268814087,
            0.6066964864730835,
            1.2059175968170166,
            3.700589418411255,
            -0.781229555606842,
            1.6702773571014404,
            7.048889636993408,
            2.3788411617279053,
            1.3348156213760376,
            2.4729342460632324,
            -1.9062000513076782,
            -2.2710628509521484,
            -7.322011470794678,
            -3.994776487350464,
            0.2959062159061432,
            -0.8276413083076477,
            0.26366040110588074,
            -2.2025623321533203,
            -0.4060452878475189,
            -1.0202058553695679,
            -0.2804827392101288,
            0.5446780920028687,
            0.1482890099287033,
            -0.39102864265441895,
            -1.9649419784545898,
            0.15729688107967377,
            -2.266935348510742,
            -2.3587419986724854,
            0.25678154826164246,
            0.7478191256523132,
            0.2503221333026886,
            -2.5154330730438232,
            0.7062102556228638,
            0.34809258580207825,
            -0.6415480375289917,
            -6.856227397918701,
            5.496354103088379,
            -7.794493675231934,
            -0.3429041802883148,
            4.096500873565674,
            -5.610294342041016,
            -5.650123596191406,
            -4.878046035766602,
            -6.061244964599609,
            10.015838623046875,
            2.2158002853393555,
            -0.9724473357200623,
            -4.13941764831543,
            1.826799988746643,
            -0.1419302523136139,
            6.959667205810547,
            7.303466796875,
            0.5338541865348816,
            -7.134750843048096,
            2.5881621837615967,
            2.982046127319336,
            -3.0655174255371094,
            -0.8132497072219849,
            -7.749683856964111,
            -5.202914714813232,
            0.29593467712402344,
            -0.9346081614494324,
            3.882253885269165,
            1.4102954864501953,
            1.3676719665527344,
            -3.1237916946411133,
            1.8057093620300293,
            0.2740935683250427,
            -1.5918413400650024,
            7.146083354949951,
            -9.580646514892578,
            2.097404718399048,
            -0.1510300487279892,
            -9.061675071716309,
            1.0039055347442627,
            7.087274551391602,
            4.057517051696777,
            -5.791008472442627,
            -0.07427753508090973,
            1.4062398672103882,
            0.9042879939079285,
            -0.48162326216697693,
            -7.214999198913574,
            5.657505512237549,
            -3.206277370452881,
            -4.707084655761719,
            -5.904444217681885,
            -3.1335160732269287,
            4.450252056121826,
            5.423042297363281,
            -5.858933448791504,
            5.199587821960449,
            11.499996185302734,
            5.771915912628174,
            -5.941473960876465,
            5.761216640472412,
            -1.9751663208007812,
            -3.7459311485290527,
            10.863736152648926,
            5.073532581329346,
            1.4452624320983887,
            -5.246265888214111,
            6.228146553039551,
            12.668493270874023,
            2.9708781242370605,
            0.6543046236038208,
            2.8609015941619873,
            -3.876277208328247,
            -7.346867084503174,
            7.142750263214111,
            -0.9336508512496948,
            -2.7317276000976562,
            -2.349621295928955,
            -13.2333345413208,
            -10.41283130645752,
            -1.7402217388153076,
            -6.8790764808654785,
            -2.4900729656219482,
            2.4631643295288086,
            -5.135798454284668,
            3.2389402389526367,
            1.4280325174331665,
            -5.324693202972412,
            -4.811342239379883,
            -10.144010543823242,
            0.6293174624443054,
            -4.033080577850342,
            1.2985154390335083,
            -1.5590144395828247,
            -2.5143182277679443,
            -2.2176754474639893,
            -1.890529990196228,
            -3.155647039413452,
            -1.9423555135726929,
            -1.5706449747085571,
            -0.6180756092071533,
            -0.8791618943214417,
            -0.7084336876869202,
            -0.8419286012649536,
            1.600507378578186,
            -1.276402235031128,
            0.3276112675666809,
            -3.524022102355957,
            0.942080020904541,
            -0.7685351371765137,
            -1.412880301475525,
            4.40078067779541,
            2.4985835552215576,
            -0.7930601239204407,
            4.552304744720459,
            -3.7314703464508057,
            -1.6209430694580078,
            1.3788142204284668,
            1.2802258729934692,
            -1.250680685043335,
            2.663280963897705,
            1.683032751083374,
            -0.06861898303031921,
            -0.9468530416488647,
            -0.9449059963226318,
            -1.5653916597366333,
            0.33611994981765747,
            1.7879259586334229,
            -1.4339393377304077,
            2.947066068649292,
            1.5814943313598633,
            4.324197769165039,
            0.811453104019165,
            -0.9327825903892517,
            0.9092799425125122,
            -3.2132046222686768,
            3.901324510574341,
            -2.4755024909973145,
            -7.850873947143555,
            -2.2149977684020996,
            4.088620662689209,
            -0.9169309735298157,
            -0.969901978969574,
            -1.2713241577148438,
            -0.9755872488021851,
            -2.6081597805023193,
            -7.367687702178955,
            1.9258428812026978,
            -1.6970309019088745,
            4.6895060539245605,
            -4.1167168617248535,
            -3.594087839126587,
            2.8991785049438477,
            -2.2121775150299072,
            1.31444251537323,
            3.0636417865753174,
            -6.124841213226318,
            5.421844959259033,
            2.1502461433410645,
            2.982365369796753,
            0.8331755995750427,
            1.2397830486297607,
            3.6955647468566895,
            -4.509871006011963,
            -2.7158401012420654,
            0.5286930799484253,
            5.981079578399658,
            -1.927819848060608,
            4.706488609313965,
            3.1477572917938232,
            -1.8242990970611572,
            -0.10824716836214066,
            14.983287811279297,
            6.195101737976074,
            6.67443323135376,
            2.7261810302734375,
            -1.097621202468872,
            4.214791774749756,
            -6.777091979980469,
            -0.359043687582016,
            -1.653005838394165,
            4.673397541046143,
            0.8298190236091614,
            3.1078457832336426,
            3.187183380126953,
            -2.324577569961548,
            0.04333669692277908,
            -3.8706107139587402,
            -2.3564653396606445,
            -1.8207097053527832,
            -6.231661319732666,
            -8.054091453552246,
            0.1890731155872345,
            -6.2977447509765625,
            3.0970888137817383,
            -1.5582773685455322,
            -1.645262360572815,
            -10.441498756408691,
            0.47240787744522095,
            -4.431198596954346,
            2.649061918258667,
            1.2448927164077759,
            -9.723504066467285,
            2.9776642322540283,
            2.9869885444641113,
            -2.5064167976379395,
            16.25520133972168,
            0.8263323903083801,
            -3.143425941467285,
            0.5604104995727539,
            -0.3060930073261261,
            3.360074758529663,
            -0.5878649353981018,
            8.403368949890137,
            -0.06192617863416672,
            2.7998392581939697,
            2.548783540725708,
            1.8426735401153564,
            0.5083476305007935,
            -1.4900286197662354,
            -1.8577511310577393,
            -0.10719645768404007,
            -1.2350236177444458,
            0.3904556334018707,
            -0.03595393896102905,
            1.4235163927078247,
            -6.727148056030273,
            1.2135303020477295,
            6.229183673858643,
            2.081340789794922,
            0.33002084493637085,
            7.800754070281982,
            0.9152455925941467,
            4.5529069900512695,
            0.5848163962364197,
            2.0266647338867188,
            -0.6374605298042297,
            -0.004105984233319759,
            0.7277910709381104,
            2.0409793853759766,
            0.501404881477356,
            -2.7129149436950684,
            -1.9065492153167725,
            -0.4312807321548462,
            -1.1063600778579712,
            -1.1522568464279175,
            -1.653165340423584,
            1.963459849357605,
            -0.543369472026825,
            0.7071130275726318,
            -0.677429735660553,
            -5.6152544021606445,
            4.247696399688721,
            -1.0246928930282593,
            -1.80147385597229,
            -3.37148380279541,
            0.47358331084251404,
            -2.9116697311401367,
            -1.4712388515472412,
            -3.1462299823760986,
            -1.2616490125656128,
            3.248133659362793,
            1.5679059028625488,
            0.09371230751276016,
            -1.5348294973373413,
            -2.1637930870056152,
            4.05328893661499,
            1.942333698272705,
            -0.9548076391220093,
            -4.431989669799805,
            4.69232177734375,
            -0.19962213933467865,
            -0.020530940964818,
            -1.3420802354812622,
            -0.019732626155018806,
            2.4384419918060303,
            -2.5931429862976074,
            2.6708121299743652,
            2.950218915939331,
            -3.441053628921509,
            2.0125627517700195,
            -1.2764531373977661,
            -2.369243621826172,
            -6.667581081390381,
            -4.705873966217041,
            3.3513412475585938,
            -2.0328571796417236,
            -2.806858777999878,
            -3.8147501945495605,
            -1.2037521600723267,
            -0.8236143589019775,
            -2.4502241611480713,
            -0.5940467119216919,
            3.2157390117645264,
            -0.2584857940673828,
            0.34017935395240784,
            0.8253216743469238,
            -1.7913707494735718,
            0.10725370794534683,
            -1.2926857471466064,
            1.6908371448516846,
            3.3934566974639893,
            -2.4003794193267822,
            -1.5563321113586426,
            0.46102333068847656,
            2.023744821548462,
            -0.11085254698991776,
            -1.783100962638855,
            -4.292009353637695,
            -2.7563693523406982,
            1.7502888441085815,
            -0.8746665716171265,
            3.432219982147217,
            -1.6036748886108398,
            -6.2610764503479,
            0.3802556097507477,
            -3.230283260345459,
            -5.405995845794678,
            -5.139336109161377,
            -0.849588930606842,
            1.9280965328216553,
            -3.8880672454833984,
            -4.004292964935303,
            0.3041020333766937,
            4.392358303070068,
            -1.002514362335205,
            -4.9545416831970215,
            -0.32862338423728943,
            0.4094117283821106,
            -2.8651061058044434,
            5.507077693939209,
            4.355607032775879,
            -0.9852645993232727,
            -3.150660991668701,
            4.7185516357421875,
            -2.358151912689209,
            -3.5613458156585693,
            -5.974617958068848,
            0.21126137673854828,
            -0.5146383047103882,
            5.462879657745361,
            2.2028732299804688,
            -2.213564872741699,
            -3.287651777267456,
            1.1999447345733643,
            -0.8959454894065857,
            4.059182643890381,
            -3.7852039337158203,
            -1.0092730522155762,
            -4.766224384307861,
            4.569589614868164,
            1.1743923425674438,
            6.082082271575928,
            2.64644455909729,
            2.8859009742736816,
            -6.1964311599731445,
            2.538377523422241,
            2.7638635635375977,
            -2.1427664756774902,
            -4.150130748748779,
            -4.953965663909912,
            4.001535415649414,
            8.924091339111328,
            -3.6453585624694824,
            -1.4334793090820312,
            0.9364160299301147,
            -5.813312530517578,
            0.47304078936576843,
            -3.5132594108581543,
            0.38951045274734497,
            -0.7247902750968933,
            -5.391947269439697,
            -3.548379421234131,
            -0.7132482528686523,
            -4.199785232543945,
            -8.815019607543945,
            9.500466346740723,
            -3.833763360977173,
            -4.0873942375183105,
            -1.4682772159576416,
            1.7081148624420166,
            -0.7367472052574158,
            4.078182220458984,
            2.1512720584869385,
            -3.5783286094665527,
            -4.253720760345459,
            -1.4237219095230103,
            -1.5232058763504028,
            -1.5356651544570923,
            1.317685604095459,
            13.360469818115234,
            1.4223484992980957,
            -3.808002471923828,
            1.4072178602218628,
            -0.034915193915367126,
            0.31062281131744385,
            1.13480806350708,
            0.6341082453727722,
            -0.22299878299236298,
            1.1593579053878784,
            3.8087406158447266,
            -0.202459916472435,
            -5.486003875732422,
            2.7227752208709717,
            0.37281304597854614,
            -4.3518571853637695,
            -3.3886115550994873,
            2.867882490158081,
            6.898231506347656,
            -5.236927509307861,
            -3.399249792098999,
            -3.356894016265869,
            0.45514926314353943,
            0.38109153509140015,
            0.5429087281227112,
            -1.3433278799057007,
            11.510382652282715,
            -3.745640516281128,
            0.7733252644538879,
            -2.622793436050415,
            -0.02228611335158348,
            -5.730662822723389,
            1.5458488464355469,
            -4.432685375213623,
            -5.509496688842773,
            2.39225172996521,
            -6.244711875915527,
            -9.553193092346191,
            -2.7245068550109863,
            5.9904327392578125,
            -8.430513381958008,
            3.3773391246795654,
            -5.21657657623291,
            -2.1118268966674805,
            4.355620384216309,
            6.272062301635742,
            0.3551090657711029,
            0.8085367679595947,
            3.7489242553710938,
            1.3232393264770508,
            -1.3423991203308105,
            -0.2307930588722229,
            5.513040065765381,
            -1.7722762823104858,
            -1.0935015678405762,
            -6.2017340660095215,
            6.6961188316345215,
            0.017390558496117592,
            4.607398509979248,
            1.5286641120910645,
            -4.527390003204346,
            -1.7615423202514648,
            0.7295210957527161,
            7.249492645263672,
            2.7789103984832764,
            -6.090022087097168,
            -4.595366954803467,
            1.079176902770996,
            0.658341109752655,
            -0.5471674799919128,
            1.562529444694519,
            -6.004022121429443,
            -0.4267008304595947,
            0.397256076335907,
            -0.4813775420188904,
            0.9708560109138489,
            -0.802207887172699,
            1.533562421798706,
            -0.9157903790473938,
            -3.670383930206299,
            -2.9526052474975586,
            1.6367980241775513,
            0.38236942887306213,
            -5.598957061767578,
            1.4812959432601929,
            0.7537363171577454,
            -1.1735140085220337,
            -6.704353332519531,
            -0.29408693313598633,
            1.8135215044021606,
            0.17672652006149292,
            8.65766429901123,
            0.6698480248451233,
            2.297550678253174,
            -8.287469863891602,
            1.1932413578033447,
            3.4014029502868652,
            -0.8196263909339905,
            -2.354187250137329,
            -7.400790214538574,
            0.7216746807098389,
            1.7989503145217896,
            0.4794897437095642,
            0.22012683749198914,
            -0.5943098664283752,
            3.0831782817840576,
            -0.4325290620326996,
            1.4105381965637207,
            11.294866561889648,
            -1.6503448486328125,
            1.1147735118865967,
            1.5481226444244385,
            0.2506030201911926,
            -0.5944381356239319,
            1.9530882835388184,
            -2.2568724155426025,
            -4.60658597946167,
            -0.3700074553489685,
            8.271324157714844,
            -0.25270968675613403,
            7.311619281768799,
            -3.0074124336242676,
            -2.8717236518859863,
            -5.030465602874756,
            4.423786163330078,
            -1.2953619956970215,
            -3.685687780380249,
            7.134726047515869,
            -1.330316185951233,
            -4.217099666595459,
            2.1493098735809326,
            5.357399940490723,
            -1.5577362775802612,
            -5.771617889404297,
            -0.05117081478238106,
            -2.318159818649292,
            3.0435941219329834,
            6.448753356933594,
            4.393636703491211,
            -2.5690197944641113,
            -4.875923156738281,
            -2.2172539234161377,
            -6.424970626831055,
            -2.1425623893737793,
            -1.4855973720550537,
            3.7812819480895996,
            3.3851711750030518,
            1.7169145345687866,
            -2.385014772415161,
            0.09863027930259705,
            -3.56943678855896,
            2.4335250854492188,
            -6.1106486320495605,
            4.294269561767578,
            -2.5321290493011475,
            6.525570869445801,
            0.645500659942627,
            -3.486717939376831,
            -6.478783130645752,
            -1.7585997581481934,
            3.290058135986328,
            -2.1448018550872803,
            -3.346449375152588,
            -2.5313236713409424,
            2.932612419128418,
            -3.498785972595215,
            9.292820930480957,
            3.295097589492798,
            -3.650487184524536,
            0.13806146383285522,
            -0.20525963604450226,
            4.629600524902344,
            -0.6652818918228149,
            4.997864723205566,
            -3.9768295288085938,
            6.395425796508789,
            -1.571803092956543,
            4.867599964141846,
            4.352493762969971,
            6.176361083984375,
            6.40136194229126,
            -4.4634599685668945,
            8.314210891723633,
            1.4682090282440186,
            -4.398965358734131,
            0.9283848404884338,
            10.358015060424805,
            2.732388496398926,
            0.8837335705757141,
            4.164202690124512,
            -0.8676238059997559,
            2.079864978790283,
            -13.504324913024902,
            9.726324081420898,
            4.3161749839782715,
            5.086359024047852,
            -2.5060718059539795,
            -4.9211225509643555,
            -2.0414159297943115,
            0.9726303219795227,
            -1.467576026916504,
            -0.7235958576202393,
            5.504133701324463,
            -2.294776439666748,
            6.278192043304443,
            -4.783967018127441,
            -2.148226737976074,
            0.8413929343223572,
            -4.4137115478515625,
            -2.058772325515747,
            12.058815956115723,
            -0.672653079032898,
            1.8256937265396118,
            8.07962417602539,
            0.4422314763069153,
            -3.123183012008667,
            9.90545654296875,
            2.6435320377349854,
            -4.757499694824219,
            -1.4228754043579102,
            2.0642166137695312,
            -7.016541957855225,
            -4.377100944519043,
            5.221292018890381,
            -8.225236892700195,
            -0.23772898316383362,
            -2.3545167446136475,
            0.6411435604095459,
            4.786280155181885,
            -14.47530746459961,
            -5.392117023468018,
            -0.892115592956543,
            -2.1763784885406494,
            -2.8521628379821777,
            -6.380086421966553,
            -5.293523788452148,
            -6.554182052612305,
            1.2022085189819336,
            -2.2574853897094727,
            2.7284133434295654,
            2.235448122024536,
            -2.2313601970672607,
            -0.9650740623474121,
            -1.8846068382263184,
            0.25751250982284546,
            -9.328740119934082,
            -0.5471457242965698,
            1.1878094673156738,
            1.114891767501831,
            -5.168172836303711,
            -5.348824501037598,
            1.1957204341888428,
            -3.297102928161621,
            2.8326423168182373,
            -0.404672771692276,
            -2.7358717918395996,
            2.2049806118011475,
            2.013019561767578,
            5.878983497619629,
            -0.7668769359588623,
            -0.7371484637260437,
            4.806853294372559,
            -6.974065780639648,
            -2.319457769393921,
            -1.2112785577774048,
            11.80734634399414,
            -2.4367551803588867,
            7.008252143859863,
            4.1888532638549805,
            -10.789202690124512,
            0.6180618405342102,
            -1.446454405784607,
            3.727790117263794,
            -4.265126705169678,
            -7.257049083709717,
            10.825078964233398,
            -3.8779494762420654,
            0.5080441832542419,
            -7.735434532165527,
            -1.5842782258987427,
            3.530902624130249,
            2.109027862548828,
            3.2587990760803223,
            -11.04047679901123,
            6.669714450836182,
            0.6870687007904053,
            6.583894729614258,
            7.833320617675781,
            -6.395334720611572,
            -9.438544273376465,
            -1.970037817955017,
            8.726977348327637,
            3.122514247894287,
            -5.576316833496094,
            1.5730749368667603,
            4.1684465408325195,
            4.468195915222168,
            -7.346027374267578,
            -1.7442686557769775,
            3.8774423599243164,
            -3.8821680545806885,
            1.5622105598449707,
            -1.5556132793426514,
            1.2232062816619873,
            -2.8822598457336426,
            -1.434881329536438,
            0.1920633763074875,
            -2.3474016189575195,
            -0.8446744084358215,
            3.864917516708374,
            -0.7232747077941895,
            2.2285304069519043,
            -2.6323275566101074,
            1.5568504333496094,
            6.717440605163574,
            4.94792366027832,
            -1.9758269786834717,
            5.206442832946777,
            -2.1573245525360107,
            -0.8454023599624634,
            3.882725477218628,
            -3.97617506980896,
            5.066978454589844,
            1.4532434940338135,
            -0.7781960368156433,
            3.5124776363372803,
            -3.692319631576538,
            3.442780017852783,
            3.2364163398742676,
            -7.728934288024902,
            -0.3256169855594635,
            -0.4352155327796936,
            -3.4354147911071777,
            -0.18649043142795563,
            -4.860302448272705,
            -3.548497200012207,
            6.401351451873779,
            2.497439384460449,
            2.0717625617980957,
            4.750107288360596,
            3.9514458179473877,
            0.779845654964447,
            0.7897619009017944,
            -5.042643070220947,
            -3.9551539421081543,
            -1.5487487316131592,
            0.7386472821235657,
            -1.1779345273971558,
            0.9990304112434387,
            0.46252456307411194,
            -3.8253180980682373,
            5.477680206298828,
            -2.5803606510162354,
            4.695265293121338,
            5.458906173706055,
            -4.596883296966553,
            4.91405725479126,
            -0.31570756435394287,
            1.2676267623901367,
            6.998094081878662,
            2.877868413925171,
            5.979881286621094,
            4.82909631729126,
            0.4956073760986328,
            7.644629955291748,
            -1.735060691833496,
            -6.97522497177124,
            -6.261871814727783,
            -2.7158894538879395,
            7.189517021179199,
            1.752559781074524,
            2.914494037628174,
            5.760256767272949,
            1.3068598508834839,
            2.4965717792510986,
            -0.5497424602508545,
            -6.549636363983154,
            -6.14661979675293,
            -0.8887932300567627,
            3.416736602783203,
            3.3164007663726807,
            4.742875099182129,
            -3.0319583415985107,
            -0.02608509548008442,
            -4.0106024742126465,
            -2.32224178314209,
            -0.03697808086872101,
            4.9135565757751465,
            10.572124481201172,
            -0.7241225838661194,
            -1.898962140083313,
            3.007143259048462,
            1.6097739934921265,
            7.106720924377441,
            -3.7966365814208984,
            8.137223243713379,
            -1.8693445920944214,
            0.9411507844924927,
            1.2058370113372803,
            0.8443366289138794,
            10.491232872009277,
            -2.893763542175293,
            0.12355737388134003,
            7.285743236541748,
            2.5196845531463623,
            -4.359856605529785,
            -3.1154897212982178,
            4.602863788604736,
            -5.762898921966553,
            12.144088745117188,
            6.52133321762085,
            9.405071258544922,
            4.241335868835449,
            0.8890417814254761,
            -1.0125820636749268,
            3.7183821201324463,
            -9.833373069763184,
            4.325168132781982,
            -1.0617246627807617,
            -0.4216296672821045,
            -5.582536697387695,
            1.6727170944213867,
            12.042613983154297,
            2.1394097805023193,
            -1.6024304628372192,
            -5.641787528991699,
            9.175430297851562,
            8.245556831359863,
            -4.333384037017822,
            -6.009863376617432,
            5.214906692504883,
            13.888301849365234,
            -1.5260361433029175,
            -10.552474975585938,
            7.802435874938965,
            7.998350143432617,
            0.6254569888114929,
            -7.393646240234375,
            -4.718066692352295,
            -1.018453598022461,
            6.786759853363037,
            -3.7642853260040283,
            -0.23101918399333954,
            0.18201231956481934,
            -4.456223964691162,
            3.069800615310669,
            -3.365546703338623,
            4.44097900390625,
            -3.8345730304718018,
            3.9134883880615234,
            -4.075277805328369,
            5.684021472930908,
            10.284280776977539,
            -2.8655920028686523,
            -1.8094335794448853,
            2.251633882522583,
            6.888165473937988,
            -5.661701679229736,
            -4.030603408813477,
            -1.0267637968063354,
            -4.007379531860352,
            -3.105205535888672,
            5.575596332550049,
            0.7652983069419861,
            2.980334997177124,
            -2.0460777282714844,
            -0.6664332151412964,
            1.051862359046936,
            -11.648418426513672,
            -3.2475829124450684,
            1.1797224283218384,
            -3.6055760383605957,
            3.6791934967041016,
            -2.1351027488708496,
            -3.9533162117004395,
            -0.8301494121551514,
            -6.896556377410889,
            -0.9395430088043213,
            0.2719481885433197,
            -3.7419471740722656,
            4.204728603363037,
            -5.549476623535156,
            -2.5599727630615234,
            -3.9877452850341797,
            -7.566145420074463,
            -5.344418048858643,
            6.608067035675049,
            -11.218270301818848,
            1.1184284687042236,
            3.6906397342681885,
            0.8961354494094849,
            -10.342171669006348,
            -5.566053867340088,
            -7.852104663848877,
            -4.013740062713623,
            -0.5008063316345215,
            9.376376152038574,
            -4.690260410308838,
            5.214633941650391,
            3.7620677947998047,
            -5.7308831214904785,
            -5.304934978485107,
            -11.108763694763184,
            0.17394353449344635,
            0.9799697399139404,
            1.8914049863815308,
            5.369041442871094,
            1.7531485557556152,
            4.730156898498535,
            1.5874475240707397,
            3.756577968597412,
            0.8725829124450684,
            2.300335645675659,
            -1.9614927768707275,
            1.5742319822311401,
            2.3662664890289307,
            5.225300312042236,
            3.6557435989379883,
            -5.971718788146973,
            18.558427810668945,
            -0.9534580707550049,
            2.543869733810425,
            4.726946830749512,
            0.9978995323181152,
            10.452666282653809,
            -1.5072941780090332,
            -9.295267105102539,
            -3.0608925819396973,
            1.3786087036132812,
            -11.680501937866211,
            -11.328737258911133,
            -2.2834606170654297,
            4.267759799957275,
            8.054661750793457,
            -5.11531400680542,
            -0.20240582525730133,
            1.6208330392837524,
            -0.4351368546485901,
            -1.4923129081726074,
            -3.206575870513916,
            -0.9679639339447021,
            3.5887722969055176,
            -8.496039390563965,
            3.9711804389953613,
            2.5337975025177,
            7.813055515289307,
            6.18090295791626,
            4.166031837463379,
            0.4034917950630188,
            -1.4806355237960815,
            -3.913299322128296,
            -6.737961292266846,
            -2.453388214111328,
            3.035583257675171,
            6.390615940093994,
            2.2080955505371094,
            -2.9465785026550293,
            3.548633337020874,
            7.200114727020264,
            2.3189382553100586,
            -0.5575960278511047,
            -2.1091034412384033,
            4.611405849456787,
            -1.6512064933776855,
            -1.1598109006881714,
            4.086369037628174,
            3.8266305923461914,
            -3.8767526149749756,
            1.5974316596984863,
            -1.6446641683578491,
            2.804274559020996,
            -0.6065406799316406,
            7.74744987487793,
            2.3185672760009766,
            -10.715559959411621,
            0.5724632740020752,
            -3.2544424533843994,
            0.6920982003211975,
            12.928696632385254,
            -4.9564385414123535,
            -2.4010815620422363,
            2.928982734680176,
            0.36626797914505005,
            -4.143385410308838,
            3.445995330810547,
            6.159336566925049,
            3.9256086349487305,
            0.10108578950166702,
            -5.344717502593994,
            -2.8040993213653564,
            4.093322277069092,
            -0.31760796904563904,
            2.8006246089935303,
            0.09084122627973557,
            4.181037425994873,
            -4.771010398864746,
            -7.288155555725098,
            -7.653617858886719,
            0.3700372278690338,
            5.034740924835205,
            4.876865863800049,
            -2.8478827476501465,
            5.9311604499816895,
            -1.3591454029083252,
            0.3232395648956299,
            -3.3889646530151367,
            -3.169719934463501,
            -3.7738847732543945,
            7.100627899169922,
            -0.7249099016189575,
            -0.4255988895893097,
            1.4559777975082397,
            9.127128601074219,
            2.121840476989746,
            -5.414700984954834,
            2.265925645828247,
            -5.327769756317139,
            5.3003339767456055,
            -1.2267905473709106,
            -3.5101215839385986,
            0.171253502368927,
            0.021290617063641548,
            -4.27028226852417,
            6.6726179122924805,
            3.284238338470459,
            -13.205448150634766,
            -9.772601127624512,
            -7.214283466339111,
            -8.566323280334473,
            -7.736184597015381,
            1.4787003993988037,
            -0.7087194323539734,
            2.5032129287719727,
            3.6608426570892334,
            1.3979010581970215,
            -8.432343482971191,
            5.041913032531738,
            0.9735966324806213,
            -8.012494087219238,
            5.790933132171631,
            -3.0644161701202393,
            1.74800443649292,
            1.822258472442627,
            -7.402816295623779,
            8.314592361450195,
            5.597926139831543,
            4.972632884979248,
            2.0604164600372314,
            -1.8513586521148682,
            4.957728385925293,
            11.061429977416992,
            -4.537171363830566,
            -1.2381503582000732,
            3.768022060394287,
            -2.0461020469665527,
            -2.2956719398498535,
            -1.3090420961380005,
            -4.250978946685791,
            4.079275131225586,
            -0.09930971264839172,
            -15.146662712097168,
            11.161238670349121,
            -4.7138166427612305,
            2.4986305236816406,
            -17.263700485229492,
            -1.0135016441345215,
            -11.280769348144531,
            0.42363250255584717,
            0.08109807968139648,
            -5.901825904846191,
            7.874324321746826,
            3.584965705871582,
            0.39733070135116577,
            -2.949094533920288,
            -6.826259613037109,
            1.0108766555786133,
            -3.3747355937957764,
            2.4911880493164062,
            -2.418674945831299,
            5.230310916900635,
            -2.8797810077667236,
            6.939468860626221,
            4.15669584274292,
            5.924437999725342,
            -0.17015886306762695,
            3.5381290912628174,
            5.750087738037109,
            1.036566138267517,
            -2.4977662563323975,
            -6.768691062927246,
            3.099275588989258,
            -1.5200088024139404,
            5.166280269622803,
            0.4674534499645233,
            6.311204433441162,
            5.7580485343933105,
            3.454726219177246,
            -3.639528512954712,
            -1.8232793807983398,
            -0.5297033786773682,
            11.169822692871094,
            -7.912105560302734,
            -3.428161382675171,
            0.9549066424369812,
            -5.667599201202393,
            3.2855706214904785,
            -5.823732376098633,
            -6.74814510345459,
            4.729659080505371,
            7.960874080657959,
            2.0865979194641113,
            2.1606240272521973,
            -3.3599395751953125,
            -6.43139123916626,
            0.10291147232055664,
            -9.763103485107422,
            5.210680961608887,
            2.9758145809173584,
            7.778200626373291,
            4.170650959014893,
            2.482034921646118,
            -0.7193692326545715,
            0.6694274544715881,
            -3.2776243686676025,
            -6.152631759643555,
            0.12946198880672455,
            4.438665866851807,
            -4.377882480621338,
            5.999173164367676,
            1.6311367750167847,
            2.7213196754455566,
            -3.9387502670288086,
            -0.5164109468460083,
            -0.6737992167472839,
            4.49798583984375,
            1.4915027618408203,
            2.415199041366577,
            -1.6616870164871216,
            2.1275715827941895,
            0.44494834542274475,
            -4.5054030418396,
            5.301082134246826,
            -0.931058943271637,
            4.324634075164795,
            0.10408244282007217,
            -1.0660613775253296,
            3.1270220279693604,
            -4.082188606262207,
            -5.065552234649658,
            3.9088704586029053,
            -10.707115173339844,
            3.9953277111053467,
            4.022270679473877,
            4.420385837554932,
            -0.5353240966796875,
            -1.125813364982605,
            -12.57473373413086,
            -2.2806556224823,
            -2.2804248332977295,
            -3.8351268768310547,
            -16.118682861328125,
            0.23346984386444092,
            6.941800594329834,
            1.1126315593719482,
            4.698057651519775,
            5.467926025390625,
            4.738530158996582,
            6.572446346282959,
            5.929811954498291,
            -2.2934069633483887,
            -6.874127388000488,
            11.055695533752441,
            5.119231224060059,
            -6.21334171295166,
            0.42320215702056885,
            4.982233047485352,
            -2.236483335494995,
            12.334020614624023,
            5.71699857711792,
            2.865196943283081,
            6.247118949890137,
            4.835258483886719,
            1.2621873617172241,
            -10.043285369873047,
            6.439817905426025,
            -1.6891611814498901,
            -7.1601643562316895,
            2.4085476398468018,
            -5.979190349578857,
            0.12274453043937683,
            1.7024565935134888,
            0.5388956665992737,
            8.649739265441895,
            -4.005908966064453,
            -3.9246933460235596,
            12.06628131866455,
            -12.142190933227539,
            0.1205371618270874,
            6.095524787902832,
            7.507144451141357,
            -1.5978091955184937,
            -3.036709785461426,
            -0.10302019864320755,
            1.1347019672393799,
            -0.5148729681968689,
            -1.208587646484375,
            -5.941446304321289,
            -0.4393500089645386,
            10.720664978027344,
            -4.395610332489014,
            2.928778648376465,
            -2.0181803703308105,
            -2.03462290763855,
            6.820946216583252,
            4.390704154968262,
            -1.5547949075698853,
            -7.682609558105469,
            -0.2886662781238556,
            -4.149823188781738,
            -2.962566375732422,
            -5.684634208679199,
            -1.8728902339935303,
            -12.419458389282227,
            7.289125442504883,
            0.9718935489654541,
            -5.085799217224121,
            10.250231742858887,
            -5.098475456237793,
            -4.409471035003662,
            -6.443039417266846,
            6.634647369384766,
            3.5210747718811035,
            -1.6363190412521362,
            -5.113794326782227,
            0.8998109102249146,
            2.1811790466308594,
            -9.342142105102539,
            -4.266033172607422,
            5.54099178314209,
            -1.7971553802490234,
            -5.477694988250732,
            -0.9618257880210876,
            -0.18681007623672485,
            -4.286585330963135,
            -7.379058837890625,
            2.3172192573547363,
            1.0454070568084717,
            -8.176680564880371,
            0.9103388786315918,
            -1.9678232669830322,
            -5.875511646270752,
            -4.881828308105469,
            -4.233504295349121,
            -2.2808284759521484,
            6.154483795166016,
            4.063879489898682,
            1.5708569288253784,
            2.3079404830932617,
            -15.039426803588867,
            0.3656924068927765,
            -1.9304051399230957,
            -6.393542289733887,
            -2.5432562828063965,
            10.553142547607422,
            -5.914849758148193,
            3.232001781463623,
            6.624669551849365,
            -18.879688262939453,
            -3.8642890453338623,
            -3.057145118713379,
            3.6020004749298096,
            4.033753871917725,
            -2.7806012630462646,
            15.568239212036133,
            -6.700745582580566,
            4.11981201171875,
            -5.470624923706055,
            -2.9314324855804443,
            13.424549102783203,
            10.724594116210938,
            1.9519041776657104,
            -15.611967086791992,
            -6.493143558502197,
            -4.792945384979248,
            0.5681015253067017,
            -1.9901766777038574,
            -4.228484630584717,
            1.416467547416687,
            -7.478987216949463,
            6.548816680908203,
            0.7626891136169434,
            -3.6632630825042725,
            5.16598653793335,
            7.956424236297607,
            5.68219518661499,
            -8.770103454589844,
            11.249728202819824,
            4.837342262268066,
            -4.247284889221191,
            -2.5451722145080566,
            -11.555925369262695,
            10.067301750183105,
            3.6256227493286133,
            -7.227468490600586,
            18.143842697143555,
            6.278608322143555,
            -1.0698984861373901,
            0.15396857261657715,
            5.634963512420654,
            5.178114891052246,
            -4.6955976486206055,
            8.682165145874023,
            4.881554126739502,
            2.937303304672241,
            6.933122158050537,
            -3.41869854927063,
            1.9327311515808105,
            12.075148582458496,
            -7.280879020690918,
            3.6647000312805176,
            5.427990436553955,
            1.9076745510101318,
            9.811018943786621,
            -9.194891929626465,
            2.704678535461426,
            2.4190962314605713,
            -5.444677352905273,
            -4.039803504943848,
            4.081913471221924,
            -12.552197456359863,
            4.446371555328369,
            5.2075090408325195,
            -2.3711178302764893,
            -0.49475646018981934,
            11.70009994506836,
            1.4313522577285767,
            16.689281463623047,
            -5.578113555908203,
            -10.686728477478027,
            5.784175872802734,
            5.077938556671143,
            3.9215331077575684,
            0.6712526679039001,
            -4.171468734741211,
            -7.4328742027282715,
            -3.79723858833313,
            10.035479545593262,
            -4.995232105255127,
            7.853269577026367,
            1.890512228012085,
            -13.70095443725586,
            -12.010269165039062,
            1.3870010375976562,
            -3.786170244216919,
            -5.744539260864258,
            5.492824077606201,
            23.136716842651367,
            -2.521921396255493,
            -4.53013801574707,
            4.752712249755859,
            -14.820294380187988,
            -2.5972626209259033,
            -6.924218654632568,
            -0.2050217092037201,
            -9.896063804626465,
            -1.7012430429458618,
            -4.490990161895752,
            -1.7168711423873901,
            5.725103378295898,
            -9.75134563446045,
            3.123434543609619,
            -9.309752464294434,
            -8.001897811889648,
            -2.9131100177764893,
            16.52400779724121,
            -8.295609474182129,
            -3.3404653072357178,
            -0.9970253705978394,
            -4.724741458892822,
            2.9591825008392334,
            0.7317191958427429,
            2.906304359436035,
            4.163273811340332,
            -3.1876635551452637,
            8.847831726074219,
            -3.7273426055908203,
            -2.496605396270752,
            -0.07806427776813507,
            8.242481231689453,
            -8.708627700805664,
            -2.3433358669281006,
            -8.306775093078613,
            10.153523445129395,
            -10.339009284973145,
            3.792365550994873,
            3.407799482345581,
            3.3170053958892822,
            -22.775466918945312,
            -8.016094207763672,
            -7.896234512329102,
            -25.16044807434082,
            6.983601093292236,
            2.278801441192627,
            -4.343838214874268,
            0.046149611473083496,
            4.054975986480713,
            -3.6160318851470947,
            -6.006269931793213,
            12.021349906921387,
            7.983163833618164,
            -7.992757320404053,
            11.109095573425293,
            -8.8070707321167,
            10.961827278137207,
            6.13066291809082,
            5.699660778045654,
            -1.4624333381652832,
            -1.0385446548461914,
            -5.463452339172363,
            1.1822760105133057,
            -4.5600361824035645,
            2.172412395477295,
            2.506143808364868,
            3.231227159500122,
            -0.6023020148277283,
            10.105513572692871,
            15.194099426269531,
            -2.1460835933685303,
            -5.868938446044922,
            1.6535824537277222,
            0.5704357028007507,
            -4.956732749938965,
            -19.260692596435547,
            4.903029918670654,
            4.10940408706665,
            -1.9785444736480713,
            -0.8000592589378357,
            -0.9868664145469666,
            1.6147412061691284,
            3.2771503925323486,
            -2.38607120513916,
            0.7779937386512756,
            2.77370023727417,
            -1.5578346252441406,
            -4.597071170806885,
            7.8617706298828125,
            1.1442259550094604,
            6.290079593658447,
            -1.6672884225845337,
            -0.5423863530158997,
            -0.7624501585960388,
            -2.445979118347168,
            1.7132776975631714,
            7.5298919677734375,
            2.2753820419311523,
            -1.6717501878738403,
            -3.185760974884033,
            -2.2459957599639893,
            4.0065789222717285,
            -3.256208896636963,
            -5.972145080566406,
            -0.9556440114974976,
            -6.21978235244751,
            3.6507508754730225,
            -0.8142407536506653,
            -0.5793247222900391,
            -1.9626131057739258,
            3.6518161296844482,
            -0.7936518788337708,
            -0.785825252532959,
            -3.5743236541748047,
            -3.6409316062927246,
            0.5064977407455444,
            -0.3718728721141815,
            0.8295931220054626,
            -1.060573697090149,
            3.212510824203491,
            3.638981580734253,
            -3.747007369995117,
            -4.695328235626221,
            -0.918455183506012,
            -4.159226417541504,
            -5.2344536781311035,
            1.437180519104004,
            -3.4441471099853516,
            -1.9578495025634766,
            0.3583615720272064,
            -0.21919599175453186,
            -3.7159762382507324,
            1.6110981702804565,
            0.8809861540794373,
            4.978077411651611,
            2.8666417598724365,
            5.543421745300293,
            1.6904443502426147,
            -0.839776337146759,
            -6.711541652679443,
            1.9849940538406372,
            -1.3147809505462646,
            0.701819121837616,
            -3.204190969467163,
            -2.984936237335205,
            3.739495277404785,
            -6.416828155517578,
            3.680112838745117,
            0.750921905040741,
            3.207866907119751,
            1.7197113037109375,
            1.965112566947937,
            6.6483259201049805,
            4.832255840301514,
            -2.7107093334198,
            -4.412863254547119,
            1.7955445051193237,
            7.307727813720703,
            -2.5953171253204346,
            2.3799238204956055,
            -7.634883403778076,
            2.48232364654541,
            -0.6583533883094788,
            -9.125882148742676,
            5.401934623718262,
            2.637808084487915,
            -3.7361466884613037,
            -1.5259852409362793,
            -0.25269851088523865,
            -3.293424606323242,
            -4.929171085357666,
            -0.014420412480831146,
            -0.06931361556053162,
            0.038622237741947174,
            -0.01654982380568981,
            -0.05512143671512604,
            0.04319480434060097,
            0.06544792652130127,
            -0.02169409953057766,
            0.018173228949308395,
            -0.052661485970020294,
            0.004271595738828182,
            0.05038425698876381,
            0.03967531397938728,
            0.03944716230034828,
            0.037334952503442764,
            -0.048899371176958084,
            0.015956442803144455,
            0.06413472443819046,
            -0.017384745180606842,
            0.061334408819675446,
            0.051959291100502014,
            0.02977823093533516,
            -0.06807081401348114,
            -0.06954923272132874,
            -0.062373798340559006,
            0.043568287044763565,
            -0.03858846426010132,
            -0.007854917086660862,
            0.06477601826190948,
            0.04562082886695862,
            0.056630633771419525,
            -0.06603306531906128,
            -0.029602915048599243,
            0.006181384902447462,
            0.035982996225357056,
            0.029457729309797287,
            0.018001003190875053,
            0.05155835300683975,
            -0.000033853848435683176,
            -0.0008543873555026948,
            -0.05264882370829582,
            -0.059432610869407654,
            -0.05150539055466652,
            -0.009347154758870602,
            -0.019881052896380424,
            -0.013227686285972595
        ]
    },
    "hiddenLayers": [
        {
            "inputMatrix": {
                "rows": 4,
                "columns": 46,
                "weights": [
                    -0.7139678001403809,
                    -0.1670375019311905,
                    0.4975888729095459,
                    3.1850244998931885,
                    1.321431040763855,
                    -0.5687426328659058,
                    -1.9104652404785156,
                    -0.49185711145401,
                    0.693013608455658,
                    -1.2243225574493408,
                    -1.9438997507095337,
                    6.049935340881348,
                    -3.0613648891448975,
                    1.1622041463851929,
                    -0.68123459815979,
                    0.5898695588111877,
                    6.475156307220459,
                    0.6355320811271667,
                    0.36540547013282776,
                    2.568605661392212,
                    3.9742062091827393,
                    3.761631488800049,
                    -0.4145846366882324,
                    0.9685074090957642,
                    0.7172885537147522,
                    0.003752230666577816,
                    -5.054266452789307,
                    -1.7512450218200684,
                    0.8685258030891418,
                    -3.4206974506378174,
                    -0.3722671866416931,
                    -1.4242451190948486,
                    0.3956248164176941,
                    -0.5304099917411804,
                    1.7800495624542236,
                    0.7247646450996399,
                    -0.7515273690223694,
                    -0.7551345825195312,
                    1.7463884353637695,
                    1.249869704246521,
                    -1.3765839338302612,
                    -0.38974204659461975,
                    0.13328753411769867,
                    -2.4314210414886475,
                    5.581956386566162,
                    -1.3899211883544922,
                    -1.783079743385315,
                    -1.0452077388763428,
                    1.6287753582000732,
                    0.5369963645935059,
                    1.6735001802444458,
                    1.7412387132644653,
                    1.0225951671600342,
                    -1.2458568811416626,
                    1.0159392356872559,
                    -1.1902693510055542,
                    -0.680199384689331,
                    -0.14854060113430023,
                    0.045318130403757095,
                    1.5756088495254517,
                    1.7921055555343628,
                    1.8804845809936523,
                    -0.2725587785243988,
                    1.3296700716018677,
                    -3.192986249923706,
                    -1.47575843334198,
                    -1.2245075702667236,
                    -0.9811192750930786,
                    0.03501977026462555,
                    1.077216625213623,
                    0.05326046422123909,
                    2.1276161670684814,
                    0.2617601156234741,
                    -1.82735276222229,
                    0.9733657240867615,
                    0.5961084365844727,
                    -1.0756118297576904,
                    1.1045390367507935,
                    -0.7422212362289429,
                    -0.6015383005142212,
                    -1.5398077964782715,
                    -0.08126795291900635,
                    -1.056868314743042,
                    -2.098109722137451,
                    -1.5378378629684448,
                    1.6844639778137207,
                    -1.1042436361312866,
                    -0.3808697760105133,
                    0.6759966015815735,
                    -0.8159993886947632,
                    0.35799360275268555,
                    0.01576044037938118,
                    0.39470937848091125,
                    -0.36763495206832886,
                    -1.19414484500885,
                    0.6838339567184448,
                    0.7063077688217163,
                    -2.460890769958496,
                    0.265117347240448,
                    -2.7564163208007812,
                    -2.6308083534240723,
                    -2.489104986190796,
                    2.058664321899414,
                    -4.362965106964111,
                    -2.1110522747039795,
                    3.015568494796753,
                    -0.7266379594802856,
                    -0.6181995272636414,
                    -4.017545223236084,
                    0.36012962460517883,
                    -2.5002505779266357,
                    -5.715521335601807,
                    -1.3201215267181396,
                    0.2531834840774536,
                    -0.53031986951828,
                    -1.3951828479766846,
                    1.7223474979400635,
                    0.7309211492538452,
                    0.33719342947006226,
                    3.856733560562134,
                    0.6659130454063416,
                    -2.6568424701690674,
                    -1.752806544303894,
                    -0.43317556381225586,
                    0.3273026943206787,
                    2.5479512214660645,
                    -0.036596305668354034,
                    0.21814964711666107,
                    -0.7534781694412231,
                    -0.4094133973121643,
                    -0.8427339792251587,
                    -1.378810167312622,
                    0.17672620713710785,
                    -1.3709444999694824,
                    1.8832281827926636,
                    0.3285563290119171,
                    0.8644199967384338,
                    -1.3430242538452148,
                    -0.13575130701065063,
                    -1.4068565368652344,
                    1.2188608646392822,
                    1.622625470161438,
                    0.3282342851161957,
                    -1.045190691947937,
                    0.4770328998565674,
                    -3.226841449737549,
                    -0.5833508372306824,
                    0.7253880500793457,
                    1.0207643508911133,
                    3.258936643600464,
                    0.18524421751499176,
                    -0.2651955783367157,
                    2.7958288192749023,
                    3.0641236305236816,
                    2.990102767944336,
                    -1.04950749874115,
                    -2.2343454360961914,
                    -1.0994499921798706,
                    -2.04296875,
                    1.325177550315857,
                    0.07619671523571014,
                    0.4005030691623688,
                    -1.5469939708709717,
                    0.894523024559021,
                    -0.9414982199668884,
                    -1.253121018409729,
                    0.9062780737876892,
                    -0.20560680329799652,
                    0.16077204048633575,
                    -2.8283166885375977,
                    -1.2618064880371094,
                    2.079336404800415,
                    1.4079341888427734,
                    -1.4277422428131104,
                    -0.19247671961784363,
                    0.7037572860717773,
                    1.2598522901535034,
                    -0.39874377846717834,
                    2.3144733905792236,
                    0.8474892973899841,
                    0.7854330539703369,
                    -0.482372909784317,
                    1.1875137090682983,
                    -1.5501725673675537
                ]
            },
            "inputHidden": {
                "rows": 4,
                "columns": 4,
                "weights": [
                    -3.679051637649536,
                    -2.6919569969177246,
                    18.259769439697266,
                    9.902487754821777,
                    -12.017005920410156,
                    33.4007682800293,
                    -13.197644233703613,
                    -28.87716293334961,
                    10.500946044921875,
                    -6.577309608459473,
                    12.70545482635498,
                    19.28533363342285,
                    10.778265953063965,
                    2.715474843978882,
                    -20.10687828063965,
                    4.00952672958374
                ]
            },
            "inputBias": {
                "rows": 4,
                "columns": 1,
                "weights": [
                    -8.453790664672852,
                    2.3621387481689453,
                    3.021256685256958,
                    -5.62013053894043
                ]
            },
            "forgetMatrix": {
                "rows": 4,
                "columns": 46,
                "weights": [
                    0.4886639714241028,
                    0.2683190405368805,
                    -0.7612530589103699,
                    -0.6537283658981323,
                    -0.2791917324066162,
                    3.2410054206848145,
                    -1.9020209312438965,
                    0.5191415548324585,
                    1.1244041919708252,
                    -4.5252580642700195,
                    1.1162887811660767,
                    -0.54254549741745,
                    3.296386957168579,
                    -1.4690101146697998,
                    3.687330722808838,
                    0.6066460013389587,
                    -2.349576234817505,
                    0.9469816088676453,
                    1.9469064474105835,
                    0.4191760718822479,
                    -4.0991387367248535,
                    0.4416317641735077,
                    -1.390075922012329,
                    0.4359785318374634,
                    -0.09050962328910828,
                    1.1385092735290527,
                    -0.6338050365447998,
                    3.4598934650421143,
                    -3.1224453449249268,
                    1.7097008228302002,
                    -1.5729767084121704,
                    -1.680126428604126,
                    2.334662675857544,
                    2.0569534301757812,
                    0.734325110912323,
                    -2.095973014831543,
                    -0.9537507891654968,
                    -1.7469658851623535,
                    0.08934792131185532,
                    1.243665337562561,
                    0.19838079810142517,
                    -0.5042046904563904,
                    2.2601609230041504,
                    -0.5068379044532776,
                    -2.271028995513916,
                    0.03452500328421593,
                    -0.6354585289955139,
                    -2.4442684650421143,
                    -1.0743061304092407,
                    -1.6423882246017456,
                    0.46228528022766113,
                    -2.0479888916015625,
                    0.6785211563110352,
                    1.3443783521652222,
                    -1.586548924446106,
                    1.6267718076705933,
                    3.47891902923584,
                    -2.8491451740264893,
                    -1.1776734590530396,
                    0.2902052700519562,
                    0.5103722810745239,
                    -3.5800857543945312,
                    -2.5004849433898926,
                    -1.1652977466583252,
                    0.8342205286026001,
                    2.209420919418335,
                    -0.6155446767807007,
                    -1.2332587242126465,
                    1.3446357250213623,
                    1.1850053071975708,
                    0.8105232119560242,
                    0.5029746890068054,
                    -0.748403787612915,
                    1.0923980474472046,
                    -0.44749459624290466,
                    -2.446683883666992,
                    -1.1087933778762817,
                    -1.1420493125915527,
                    0.8945909738540649,
                    -0.7236272692680359,
                    -0.47677987813949585,
                    -1.2235832214355469,
                    1.2052913904190063,
                    -1.685909628868103,
                    0.8205017447471619,
                    -3.8412487506866455,
                    1.2320208549499512,
                    -2.01462984085083,
                    -2.018293619155884,
                    -1.1592668294906616,
                    0.4256340265274048,
                    -1.2599002122879028,
                    0.29916274547576904,
                    -1.0460782051086426,
                    1.3372074365615845,
                    -0.6205650568008423,
                    4.244513511657715,
                    -3.519860029220581,
                    -0.6110597252845764,
                    0.22435855865478516,
                    -0.669632077217102,
                    -1.4199862480163574,
                    -0.9502161145210266,
                    3.6044063568115234,
                    -5.480739593505859,
                    -1.132190227508545,
                    -0.1482929140329361,
                    -0.3032171428203583,
                    2.173435926437378,
                    1.2776968479156494,
                    -2.554574966430664,
                    -2.887535810470581,
                    5.428971767425537,
                    3.2015068531036377,
                    1.5678114891052246,
                    1.8200005292892456,
                    2.6461737155914307,
                    3.646193504333496,
                    1.7888845205307007,
                    -1.3875561952590942,
                    1.7460598945617676,
                    0.38074791431427,
                    3.0096096992492676,
                    -0.01969154179096222,
                    -0.9000822305679321,
                    -0.36662378907203674,
                    -1.3057284355163574,
                    -0.0501786544919014,
                    -1.5082333087921143,
                    1.84933602809906,
                    1.9825931787490845,
                    2.6912455558776855,
                    -2.902480363845825,
                    -4.065024375915527,
                    0.21750801801681519,
                    2.2390992641448975,
                    3.067580223083496,
                    0.4082501232624054,
                    5.667830944061279,
                    2.1402974128723145,
                    -3.2596065998077393,
                    3.649919033050537,
                    -1.4463512897491455,
                    -0.4173671007156372,
                    -4.56787109375,
                    -1.108449101448059,
                    1.701507568359375,
                    -0.3788820505142212,
                    3.0910255908966064,
                    -1.700944185256958,
                    2.9467670917510986,
                    2.8861680030822754,
                    1.9719791412353516,
                    -4.157336235046387,
                    -3.342617988586426,
                    -0.2384517788887024,
                    5.243283748626709,
                    3.3631389141082764,
                    -1.9840104579925537,
                    -1.4272640943527222,
                    2.314551830291748,
                    5.250642776489258,
                    -0.940203070640564,
                    -2.386056900024414,
                    0.6269620060920715,
                    -1.2771503925323486,
                    -2.7875943183898926,
                    -1.6492846012115479,
                    -1.0854438543319702,
                    -0.40095123648643494,
                    -3.9807605743408203,
                    -3.6898064613342285,
                    0.9440015554428101,
                    0.517090916633606,
                    1.1537200212478638,
                    2.541820526123047,
                    4.811918258666992,
                    -4.341297626495361,
                    2.5911266803741455,
                    3.2236266136169434,
                    2.471096992492676,
                    1.683927059173584,
                    2.795840263366699,
                    1.227033019065857
                ]
            },
            "forgetHidden": {
                "rows": 4,
                "columns": 4,
                "weights": [
                    -14.315953254699707,
                    5.980789661407471,
                    -7.254706382751465,
                    -8.004779815673828,
                    16.215961456298828,
                    -1.2249830961227417,
                    12.10215950012207,
                    8.882369995117188,
                    5.037550449371338,
                    4.556197643280029,
                    -3.654939651489258,
                    -4.572774410247803,
                    -8.71206283569336,
                    -1.3092347383499146,
                    23.591842651367188,
                    -1.0764421224594116
                ]
            },
            "forgetBias": {
                "rows": 4,
                "columns": 1,
                "weights": [
                    0,
                    0,
                    0,
                    0
                ]
            },
            "outputMatrix": {
                "rows": 4,
                "columns": 46,
                "weights": [
                    0.01781201921403408,
                    -0.9493210911750793,
                    1.6711288690567017,
                    1.6265647411346436,
                    1.3338871002197266,
                    1.5061883926391602,
                    2.1604902744293213,
                    -0.023327920585870743,
                    0.45961353182792664,
                    1.5627232789993286,
                    0.09176894277334213,
                    1.2127978801727295,
                    -2.486605405807495,
                    1.2384551763534546,
                    2.2505695819854736,
                    0.6888564229011536,
                    -0.2433045208454132,
                    1.778632402420044,
                    0.14697077870368958,
                    0.4487893581390381,
                    0.0409364216029644,
                    -0.5997377038002014,
                    0.3994697332382202,
                    0.6998905539512634,
                    -0.7105659246444702,
                    0.46217983961105347,
                    2.250481367111206,
                    -2.277265787124634,
                    -1.058051347732544,
                    1.2523877620697021,
                    1.0296906232833862,
                    0.128252312541008,
                    1.1335736513137817,
                    -0.5276668667793274,
                    0.7002103328704834,
                    1.3032605648040771,
                    0.035640839487314224,
                    0.888799250125885,
                    0.11960763484239578,
                    -0.5438801050186157,
                    2.7198028564453125,
                    0.08609449863433838,
                    0.657443642616272,
                    -0.3978061378002167,
                    0.9918107986450195,
                    -0.40004977583885193,
                    0.2737787067890167,
                    0.021833699196577072,
                    1.7205114364624023,
                    -0.04744993895292282,
                    -1.579663872718811,
                    -1.661660075187683,
                    0.47373005747795105,
                    -0.33151546120643616,
                    1.1214256286621094,
                    1.953269362449646,
                    3.775365114212036,
                    2.767347812652588,
                    -1.7855304479599,
                    -0.4582269787788391,
                    -0.8403540849685669,
                    0.0790175274014473,
                    0.18220573663711548,
                    0.46902334690093994,
                    0.7534661293029785,
                    0.03640357404947281,
                    1.0769917964935303,
                    1.0574759244918823,
                    -0.6447004675865173,
                    -0.40131184458732605,
                    -0.762347400188446,
                    0.27078744769096375,
                    1.0680553913116455,
                    -0.5135781168937683,
                    -0.49638333916664124,
                    -0.5062268376350403,
                    -0.5466641187667847,
                    -0.10958962142467499,
                    -0.5740079879760742,
                    2.258366823196411,
                    1.3338044881820679,
                    -0.14415611326694489,
                    -0.18116633594036102,
                    -0.8943497538566589,
                    -0.2186058759689331,
                    0.16391821205615997,
                    0.0738157108426094,
                    -0.8666115999221802,
                    -0.5165042877197266,
                    0.4222058653831482,
                    0.5095584988594055,
                    0.1048305556178093,
                    0.6876063346862793,
                    0.8849628567695618,
                    0.4996858239173889,
                    -0.41707509756088257,
                    -0.14756271243095398,
                    -0.2828969955444336,
                    1.2392945289611816,
                    -2.1269919872283936,
                    -0.3474637269973755,
                    1.8401968479156494,
                    -3.867791175842285,
                    -1.580690860748291,
                    -0.8482426404953003,
                    -0.8576453924179077,
                    -0.14015521109104156,
                    -0.5294754505157471,
                    1.034387230873108,
                    -0.3941469192504883,
                    2.303898572921753,
                    -1.3135689496994019,
                    1.2913480997085571,
                    1.4930607080459595,
                    -0.4456315040588379,
                    -0.1555146425962448,
                    -0.6090289354324341,
                    0.26411041617393494,
                    -1.2578794956207275,
                    -1.5203137397766113,
                    1.196847677230835,
                    1.2632696628570557,
                    0.36966997385025024,
                    -0.8668239712715149,
                    1.476711630821228,
                    -3.162628173828125,
                    0.16486786305904388,
                    -1.4315555095672607,
                    -0.5053582191467285,
                    -0.29385629296302795,
                    0.8771252036094666,
                    1.1361700296401978,
                    -0.629400908946991,
                    -0.54692143201828,
                    0.5190812349319458,
                    -0.5859054327011108,
                    0.5066602230072021,
                    -0.11851825565099716,
                    -0.029808925464749336,
                    3.7974419593811035,
                    -0.6607076525688171,
                    -1.0938359498977661,
                    0.2649019658565521,
                    -1.9109995365142822,
                    2.0506913661956787,
                    1.4681531190872192,
                    -1.7932031154632568,
                    0.26499491930007935,
                    -1.6831437349319458,
                    0.46135199069976807,
                    1.7292453050613403,
                    -2.183464765548706,
                    0.17111019790172577,
                    1.5969053506851196,
                    -4.077443599700928,
                    -1.1130307912826538,
                    1.6165200471878052,
                    -2.214270830154419,
                    1.198341727256775,
                    -0.46952489018440247,
                    -0.23011894524097443,
                    0.3606385886669159,
                    -2.744114875793457,
                    -2.378936529159546,
                    0.7021926045417786,
                    1.368077039718628,
                    -1.027346134185791,
                    4.789860725402832,
                    -0.34974420070648193,
                    0.47650817036628723,
                    0.9330959320068359,
